<?xml version="1.0"?>
<opencv_storage>
<cascade>
  <stageType>BOOST</stageType>
  <featureType>HAAR</featureType>
  <height>24</height>
  <width>24</width>
  <stageParams>
    <boostType>GAB</boostType>
    <minHitRate>9.9500000476837158e-01</minHitRate>
    <maxFalseAlarm>5.0000000000000000e-01</maxFalseAlarm>
    <weightTrimRate>9.4999998807907104e-01</weightTrimRate>
    <maxDepth>1</maxDepth>
    <maxWeakCount>100</maxWeakCount></stageParams>
  <featureParams>
    <maxCatCount>0</maxCatCount>
    <featSize>1</featSize>
    <mode>BASIC</mode></featureParams>
  <stageNum>5</stageNum>
  <stages>
    <!-- stage 0 -->
    <_>
      <maxWeakCount>1</maxWeakCount>
      <stageThreshold>1.</stageThreshold>
      <weakClassifiers>
        <_>
          <internalNodes>
            0 -1 0 -7.4554240703582764e-01</internalNodes>
          <leafValues>
            1. -1.</leafValues></_></weakClassifiers></_>
    <!-- stage 1 -->
    <_>
      <maxWeakCount>2</maxWeakCount>
      <stageThreshold>-6.0396730899810791e-02</stageThreshold>
      <weakClassifiers>
        <_>
          <internalNodes>
            0 -1 8 6.3049267046153545e-03</internalNodes>
          <leafValues>
            -9.9201595783233643e-01 9.7619044780731201e-01</leafValues></_>
        <_>
          <internalNodes>
            0 -1 1 1.1549417674541473e-01</internalNodes>
          <leafValues>
            -1. 9.3161922693252563e-01</leafValues></_></weakClassifiers></_>
    <!-- stage 2 -->
    <_>
      <maxWeakCount>2</maxWeakCount>
      <stageThreshold>-2.5049781799316406e-01</stageThreshold>
      <weakClassifiers>
        <_>
          <internalNodes>
            0 -1 5 2.1097607910633087e-02</internalNodes>
          <leafValues>
            -9.8585855960845947e-01 8.1111109256744385e-01</leafValues></_>
        <_>
          <internalNodes>
            0 -1 7 -8.0002270638942719e-02</internalNodes>
          <leafValues>
            7.3536074161529541e-01 -9.8423886299133301e-01</leafValues></_></weakClassifiers></_>
    <!-- stage 3 -->
    <_>
      <maxWeakCount>3</maxWeakCount>
      <stageThreshold>-1.2488858699798584e+00</stageThreshold>
      <weakClassifiers>
        <_>
          <internalNodes>
            0 -1 9 8.8318698108196259e-03</internalNodes>
          <leafValues>
            -9.6126401424407959e-01 5.9788358211517334e-01</leafValues></_>
        <_>
          <internalNodes>
            0 -1 6 8.7519623339176178e-03</internalNodes>
          <leafValues>
            -9.1400760412216187e-01 7.7344596385955811e-01</leafValues></_>
        <_>
          <internalNodes>
            0 -1 3 3.0823048204183578e-02</internalNodes>
          <leafValues>
            -9.3276178836822510e-01 7.6246011257171631e-01</leafValues></_></weakClassifiers></_>
    <!-- stage 4 -->
    <_>
      <maxWeakCount>3</maxWeakCount>
      <stageThreshold>-1.3536093235015869e+00</stageThreshold>
      <weakClassifiers>
        <_>
          <internalNodes>
            0 -1 2 -3.6876995116472244e-02</internalNodes>
          <leafValues>
            6.7630058526992798e-01 -9.4984954595565796e-01</leafValues></_>
        <_>
          <internalNodes>
            0 -1 10 -6.6089868545532227e-02</internalNodes>
          <leafValues>
            6.1010885238647461e-01 -9.3356955051422119e-01</leafValues></_>
        <_>
          <internalNodes>
            0 -1 4 2.9074430931359529e-03</internalNodes>
          <leafValues>
            -8.9159959554672241e-01 5.2980983257293701e-01</leafValues></_></weakClassifiers></_></stages>
  <features>
    <_>
      <rects>
        <_>
          0 0 22 21 -1.</_>
        <_>
          0 7 22 7 3.</_></rects>
      <tilted>0</tilted></_>
    <_>
      <rects>
        <_>
          0 5 20 6 -1.</_>
        <_>
          0 7 20 2 3.</_></rects>
      <tilted>0</tilted></_>
    <_>
      <rects>
        <_>
          0 6 1 12 -1.</_>
        <_>
          0 10 1 4 3.</_></rects>
      <tilted>0</tilted></_>
    <_>
      <rects>
        <_>
          0 14 17 3 -1.</_>
        <_>
          0 15 17 1 3.</_></rects>
      <tilted>0</tilted></_>
    <_>
      <rects>
        <_>
          1 7 1 3 -1.</_>
        <_>
          1 8 1 1 3.</_></rects>
      <tilted>0</tilted></_>
    <_>
      <rects>
        <_>
          4 9 6 6 -1.</_>
        <_>
          6 9 2 6 3.</_></rects>
      <tilted>0</tilted></_>
    <_>
      <rects>
        <_>
          10 9 3 6 -1.</_>
        <_>
          11 9 1 6 3.</_></rects>
      <tilted>0</tilted></_>
    <_>
      <rects>
        <_>
          12 5 2 15 -1.</_>
        <_>
          12 10 2 5 3.</_></rects>
      <tilted>0</tilted></_>
    <_>
      <rects>
        <_>
          13 9 3 6 -1.</_>
        <_>
          14 9 1 6 3.</_></rects>
      <tilted>0</tilted></_>
    <_>
      <rects>
        <_>
          16 9 3 6 -1.</_>
        <_>
          17 9 1 6 3.</_></rects>
      <tilted>0</tilted></_>
    <_>
      <rects>
        <_>
          21 6 2 12 -1.</_>
        <_>
          21 10 2 4 3.</_></rects>
      <tilted>0</tilted></_></features></cascade>
</opencv_storage>
