<?xml version="1.0"?>
<opencv_storage>
<cascade>
  <stageType>BOOST</stageType>
  <featureType>HAAR</featureType>
  <height>30</height>
  <width>70</width>
  <stageParams>
    <boostType>GAB</boostType>
    <minHitRate>9.9500000476837158e-01</minHitRate>
    <maxFalseAlarm>5.0000000000000000e-01</maxFalseAlarm>
    <weightTrimRate>9.4999998807907104e-01</weightTrimRate>
    <maxDepth>1</maxDepth>
    <maxWeakCount>100</maxWeakCount></stageParams>
  <featureParams>
    <maxCatCount>0</maxCatCount>
    <featSize>1</featSize>
    <mode>BASIC</mode></featureParams>
  <stageNum>4</stageNum>
  <stages>
    <!-- stage 0 -->
    <_>
      <maxWeakCount>1</maxWeakCount>
      <stageThreshold>9.8039215803146362e-01</stageThreshold>
      <weakClassifiers>
        <_>
          <internalNodes>
            0 -1 3 1.2984657287597656e-01</internalNodes>
          <leafValues>
            -1. 9.8039215803146362e-01</leafValues></_></weakClassifiers></_>
    <!-- stage 1 -->
    <_>
      <maxWeakCount>2</maxWeakCount>
      <stageThreshold>-5.2546620368957520e-02</stageThreshold>
      <weakClassifiers>
        <_>
          <internalNodes>
            0 -1 0 -8.8574886322021484e-03</internalNodes>
          <leafValues>
            9.3999999761581421e-01 -9.8403191566467285e-01</leafValues></_>
        <_>
          <internalNodes>
            0 -1 4 4.7793097794055939e-02</internalNodes>
          <leafValues>
            -9.8785293102264404e-01 9.3148529529571533e-01</leafValues></_></weakClassifiers></_>
    <!-- stage 2 -->
    <_>
      <maxWeakCount>1</maxWeakCount>
      <stageThreshold>9.3301433324813843e-01</stageThreshold>
      <weakClassifiers>
        <_>
          <internalNodes>
            0 -1 2 1.3132341206073761e-02</internalNodes>
          <leafValues>
            -1. 9.3301433324813843e-01</leafValues></_></weakClassifiers></_>
    <!-- stage 3 -->
    <_>
      <maxWeakCount>2</maxWeakCount>
      <stageThreshold>-1.4087335765361786e-01</stageThreshold>
      <weakClassifiers>
        <_>
          <internalNodes>
            0 -1 5 8.6282193660736084e-03</internalNodes>
          <leafValues>
            -9.7202795743942261e-01 8.7064677476882935e-01</leafValues></_>
        <_>
          <internalNodes>
            0 -1 1 1.3386779464781284e-02</internalNodes>
          <leafValues>
            -9.9575686454772949e-01 8.3115458488464355e-01</leafValues></_></weakClassifiers></_></stages>
  <features>
    <_>
      <rects>
        <_>
          0 2 2 27 -1.</_>
        <_>
          1 2 1 27 2.</_></rects>
      <tilted>0</tilted></_>
    <_>
      <rects>
        <_>
          1 8 4 14 -1.</_>
        <_>
          3 8 2 14 2.</_></rects>
      <tilted>0</tilted></_>
    <_>
      <rects>
        <_>
          1 26 38 4 -1.</_>
        <_>
          1 28 38 2 2.</_></rects>
      <tilted>0</tilted></_>
    <_>
      <rects>
        <_>
          10 0 21 29 -1.</_>
        <_>
          17 0 7 29 3.</_></rects>
      <tilted>0</tilted></_>
    <_>
      <rects>
        <_>
          47 2 9 26 -1.</_>
        <_>
          50 2 3 26 3.</_></rects>
      <tilted>0</tilted></_>
    <_>
      <rects>
        <_>
          58 2 6 5 -1.</_>
        <_>
          60 2 2 5 3.</_></rects>
      <tilted>0</tilted></_></features></cascade>
</opencv_storage>
