<?xml version="1.0"?>
<opencv_storage>
<cascade>
  <stageType>BOOST</stageType>
  <featureType>HAAR</featureType>
  <height>20</height>
  <width>60</width>
  <stageParams>
    <boostType>GAB</boostType>
    <minHitRate>9.9500000476837158e-01</minHitRate>
    <maxFalseAlarm>5.0000000000000000e-01</maxFalseAlarm>
    <weightTrimRate>9.4999998807907104e-01</weightTrimRate>
    <maxDepth>1</maxDepth>
    <maxWeakCount>100</maxWeakCount></stageParams>
  <featureParams>
    <maxCatCount>0</maxCatCount>
    <featSize>1</featSize>
    <mode>BASIC</mode></featureParams>
  <stageNum>7</stageNum>
  <stages>
    <!-- stage 0 -->
    <_>
      <maxWeakCount>2</maxWeakCount>
      <stageThreshold>-7.8324869275093079e-02</stageThreshold>
      <weakClassifiers>
        <_>
          <internalNodes>
            0 -1 1 -1.0054043680429459e-01</internalNodes>
          <leafValues>
            9.8648649454116821e-01 -9.9600398540496826e-01</leafValues></_>
        <_>
          <internalNodes>
            0 -1 3 6.7602634429931641e-02</internalNodes>
          <leafValues>
            -1. 9.1767913103103638e-01</leafValues></_></weakClassifiers></_>
    <!-- stage 1 -->
    <_>
      <maxWeakCount>3</maxWeakCount>
      <stageThreshold>-1.0571763515472412e+00</stageThreshold>
      <weakClassifiers>
        <_>
          <internalNodes>
            0 -1 14 1.6711182892322540e-02</internalNodes>
          <leafValues>
            -9.8398399353027344e-01 8.7999999523162842e-01</leafValues></_>
        <_>
          <internalNodes>
            0 -1 9 6.5636798739433289e-02</internalNodes>
          <leafValues>
            -9.7373485565185547e-01 8.9567846059799194e-01</leafValues></_>
        <_>
          <internalNodes>
            0 -1 2 -4.3062157928943634e-03</internalNodes>
          <leafValues>
            9.1575556993484497e-01 -9.6887087821960449e-01</leafValues></_></weakClassifiers></_>
    <!-- stage 2 -->
    <_>
      <maxWeakCount>3</maxWeakCount>
      <stageThreshold>-1.2927875518798828e+00</stageThreshold>
      <weakClassifiers>
        <_>
          <internalNodes>
            0 -1 15 1.3707345351576805e-02</internalNodes>
          <leafValues>
            -9.7205591201782227e-01 8.3673471212387085e-01</leafValues></_>
        <_>
          <internalNodes>
            0 -1 7 -1.0245580226182938e-02</internalNodes>
          <leafValues>
            7.5590294599533081e-01 -9.7124004364013672e-01</leafValues></_>
        <_>
          <internalNodes>
            0 -1 5 3.7419742438942194e-03</internalNodes>
          <leafValues>
            -9.8752135038375854e-01 6.5050840377807617e-01</leafValues></_></weakClassifiers></_>
    <!-- stage 3 -->
    <_>
      <maxWeakCount>3</maxWeakCount>
      <stageThreshold>-1.3452372550964355e+00</stageThreshold>
      <weakClassifiers>
        <_>
          <internalNodes>
            0 -1 10 -1.0476557910442352e-01</internalNodes>
          <leafValues>
            6.0465115308761597e-01 -9.7748208045959473e-01</leafValues></_>
        <_>
          <internalNodes>
            0 -1 13 2.7217185124754906e-02</internalNodes>
          <leafValues>
            -9.6318376064300537e-01 6.3282293081283569e-01</leafValues></_>
        <_>
          <internalNodes>
            0 -1 19 1.8522122874855995e-02</internalNodes>
          <leafValues>
            -9.7739613056182861e-01 5.9542864561080933e-01</leafValues></_></weakClassifiers></_>
    <!-- stage 4 -->
    <_>
      <maxWeakCount>3</maxWeakCount>
      <stageThreshold>-1.3789350986480713e+00</stageThreshold>
      <weakClassifiers>
        <_>
          <internalNodes>
            0 -1 18 2.2103184834122658e-02</internalNodes>
          <leafValues>
            -9.4411176443099976e-01 6.4625853300094604e-01</leafValues></_>
        <_>
          <internalNodes>
            0 -1 4 1.0348477214574814e-01</internalNodes>
          <leafValues>
            -9.4252943992614746e-01 6.6865670680999756e-01</leafValues></_>
        <_>
          <internalNodes>
            0 -1 12 -1.5725322067737579e-02</internalNodes>
          <leafValues>
            5.0770616531372070e-01 -9.8779642581939697e-01</leafValues></_></weakClassifiers></_>
    <!-- stage 5 -->
    <_>
      <maxWeakCount>3</maxWeakCount>
      <stageThreshold>-1.2501622438430786e+00</stageThreshold>
      <weakClassifiers>
        <_>
          <internalNodes>
            0 -1 11 1.9925678148865700e-02</internalNodes>
          <leafValues>
            -9.3432837724685669e-01 6.1111110448837280e-01</leafValues></_>
        <_>
          <internalNodes>
            0 -1 16 -2.8046756051480770e-03</internalNodes>
          <leafValues>
            7.2986048460006714e-01 -8.3965575695037842e-01</leafValues></_>
        <_>
          <internalNodes>
            0 -1 6 1.1014198884367943e-02</internalNodes>
          <leafValues>
            -9.7704994678497314e-01 5.2382189035415649e-01</leafValues></_></weakClassifiers></_>
    <!-- stage 6 -->
    <_>
      <maxWeakCount>3</maxWeakCount>
      <stageThreshold>-1.4549031257629395e+00</stageThreshold>
      <weakClassifiers>
        <_>
          <internalNodes>
            0 -1 0 -1.7043996602296829e-02</internalNodes>
          <leafValues>
            2.9953917860984802e-01 -9.8283261060714722e-01</leafValues></_>
        <_>
          <internalNodes>
            0 -1 8 1.5573302283883095e-02</internalNodes>
          <leafValues>
            -9.2825835943222046e-01 4.8981088399887085e-01</leafValues></_>
        <_>
          <internalNodes>
            0 -1 17 -5.0999004393815994e-02</internalNodes>
          <leafValues>
            4.5618781447410583e-01 -9.9508869647979736e-01</leafValues></_></weakClassifiers></_></stages>
  <features>
    <_>
      <rects>
        <_>
          0 2 6 4 -1.</_>
        <_>
          0 4 6 2 2.</_></rects>
      <tilted>0</tilted></_>
    <_>
      <rects>
        <_>
          0 2 55 4 -1.</_>
        <_>
          0 4 55 2 2.</_></rects>
      <tilted>0</tilted></_>
    <_>
      <rects>
        <_>
          0 4 2 13 -1.</_>
        <_>
          1 4 1 13 2.</_></rects>
      <tilted>0</tilted></_>
    <_>
      <rects>
        <_>
          0 14 45 4 -1.</_>
        <_>
          0 16 45 2 2.</_></rects>
      <tilted>0</tilted></_>
    <_>
      <rects>
        <_>
          0 14 48 4 -1.</_>
        <_>
          0 16 48 2 2.</_></rects>
      <tilted>0</tilted></_>
    <_>
      <rects>
        <_>
          1 6 4 3 -1.</_>
        <_>
          3 6 2 3 2.</_></rects>
      <tilted>0</tilted></_>
    <_>
      <rects>
        <_>
          1 12 2 8 -1.</_>
        <_>
          1 16 2 4 2.</_></rects>
      <tilted>0</tilted></_>
    <_>
      <rects>
        <_>
          3 2 2 6 -1.</_>
        <_>
          3 4 2 2 3.</_></rects>
      <tilted>0</tilted></_>
    <_>
      <rects>
        <_>
          5 3 6 13 -1.</_>
        <_>
          7 3 2 13 3.</_></rects>
      <tilted>0</tilted></_>
    <_>
      <rects>
        <_>
          9 4 18 12 -1.</_>
        <_>
          15 4 6 12 3.</_></rects>
      <tilted>0</tilted></_>
    <_>
      <rects>
        <_>
          12 2 47 4 -1.</_>
        <_>
          12 4 47 2 2.</_></rects>
      <tilted>0</tilted></_>
    <_>
      <rects>
        <_>
          25 4 6 11 -1.</_>
        <_>
          27 4 2 11 3.</_></rects>
      <tilted>0</tilted></_>
    <_>
      <rects>
        <_>
          30 1 4 6 -1.</_>
        <_>
          30 4 4 3 2.</_></rects>
      <tilted>0</tilted></_>
    <_>
      <rects>
        <_>
          32 4 9 12 -1.</_>
        <_>
          35 4 3 12 3.</_></rects>
      <tilted>0</tilted></_>
    <_>
      <rects>
        <_>
          41 4 6 12 -1.</_>
        <_>
          43 4 2 12 3.</_></rects>
      <tilted>0</tilted></_>
    <_>
      <rects>
        <_>
          41 7 6 9 -1.</_>
        <_>
          43 7 2 9 3.</_></rects>
      <tilted>0</tilted></_>
    <_>
      <rects>
        <_>
          45 5 3 3 -1.</_>
        <_>
          46 5 1 3 3.</_></rects>
      <tilted>0</tilted></_>
    <_>
      <rects>
        <_>
          46 0 12 8 -1.</_>
        <_>
          46 4 12 4 2.</_></rects>
      <tilted>0</tilted></_>
    <_>
      <rects>
        <_>
          49 4 6 12 -1.</_>
        <_>
          51 4 2 12 3.</_></rects>
      <tilted>0</tilted></_>
    <_>
      <rects>
        <_>
          53 12 4 8 -1.</_>
        <_>
          53 16 4 4 2.</_></rects>
      <tilted>0</tilted></_></features></cascade>
</opencv_storage>
