<?xml version="1.0"?>
<opencv_storage>
<cascade>
  <stageType>BOOST</stageType>
  <featureType>HAAR</featureType>
  <height>20</height>
  <width>60</width>
  <stageParams>
    <boostType>GAB</boostType>
    <minHitRate>9.9500000476837158e-01</minHitRate>
    <maxFalseAlarm>5.0000000000000000e-01</maxFalseAlarm>
    <weightTrimRate>9.4999998807907104e-01</weightTrimRate>
    <maxDepth>1</maxDepth>
    <maxWeakCount>100</maxWeakCount></stageParams>
  <featureParams>
    <maxCatCount>0</maxCatCount>
    <featSize>1</featSize>
    <mode>BASIC</mode></featureParams>
  <stageNum>4</stageNum>
  <stages>
    <!-- stage 0 -->
    <_>
      <maxWeakCount>1</maxWeakCount>
      <stageThreshold>9.7959184646606445e-01</stageThreshold>
      <weakClassifiers>
        <_>
          <internalNodes>
            0 -1 0 -1.7192955315113068e-01</internalNodes>
          <leafValues>
            9.7959184646606445e-01 -1.</leafValues></_></weakClassifiers></_>
    <!-- stage 1 -->
    <_>
      <maxWeakCount>2</maxWeakCount>
      <stageThreshold>-1.0618988424539566e-01</stageThreshold>
      <weakClassifiers>
        <_>
          <internalNodes>
            0 -1 1 -2.8218967840075493e-02</internalNodes>
          <leafValues>
            9.3939393758773804e-01 -9.9799597263336182e-01</leafValues></_>
        <_>
          <internalNodes>
            0 -1 6 1.8528671935200691e-02</internalNodes>
          <leafValues>
            -9.9165129661560059e-01 8.9180612564086914e-01</leafValues></_></weakClassifiers></_>
    <!-- stage 2 -->
    <_>
      <maxWeakCount>2</maxWeakCount>
      <stageThreshold>-8.8382102549076080e-02</stageThreshold>
      <weakClassifiers>
        <_>
          <internalNodes>
            0 -1 5 -1.0266812145709991e-01</internalNodes>
          <leafValues>
            9.1752576828002930e-01 -9.9199998378753662e-01</leafValues></_>
        <_>
          <internalNodes>
            0 -1 3 2.0929072052240372e-02</internalNodes>
          <leafValues>
            -9.7903585433959961e-01 9.0361791849136353e-01</leafValues></_></weakClassifiers></_>
    <!-- stage 3 -->
    <_>
      <maxWeakCount>2</maxWeakCount>
      <stageThreshold>-3.7794536352157593e-01</stageThreshold>
      <weakClassifiers>
        <_>
          <internalNodes>
            0 -1 2 -1.1674562469124794e-02</internalNodes>
          <leafValues>
            6.0000002384185791e-01 -9.8176294565200806e-01</leafValues></_>
        <_>
          <internalNodes>
            0 -1 4 2.7039656415581703e-02</internalNodes>
          <leafValues>
            -9.7794532775878906e-01 6.8417453765869141e-01</leafValues></_></weakClassifiers></_></stages>
  <features>
    <_>
      <rects>
        <_>
          0 0 54 6 -1.</_>
        <_>
          0 3 54 3 2.</_></rects>
      <tilted>0</tilted></_>
    <_>
      <rects>
        <_>
          0 3 6 12 -1.</_>
        <_>
          2 3 2 12 3.</_></rects>
      <tilted>0</tilted></_>
    <_>
      <rects>
        <_>
          4 2 2 6 -1.</_>
        <_>
          4 4 2 2 3.</_></rects>
      <tilted>0</tilted></_>
    <_>
      <rects>
        <_>
          6 3 6 13 -1.</_>
        <_>
          8 3 2 13 3.</_></rects>
      <tilted>0</tilted></_>
    <_>
      <rects>
        <_>
          24 3 9 13 -1.</_>
        <_>
          27 3 3 13 3.</_></rects>
      <tilted>0</tilted></_>
    <_>
      <rects>
        <_>
          30 10 29 9 -1.</_>
        <_>
          30 13 29 3 3.</_></rects>
      <tilted>0</tilted></_>
    <_>
      <rects>
        <_>
          41 4 6 11 -1.</_>
        <_>
          43 4 2 11 3.</_></rects>
      <tilted>0</tilted></_></features></cascade>
</opencv_storage>
