<?xml version="1.0"?>
<opencv_storage>
<cascade>
  <stageType>BOOST</stageType>
  <featureType>HAAR</featureType>
  <height>24</height>
  <width>32</width>
  <stageParams>
    <boostType>GAB</boostType>
    <minHitRate>9.9500000476837158e-01</minHitRate>
    <maxFalseAlarm>5.0000000000000000e-01</maxFalseAlarm>
    <weightTrimRate>9.4999998807907104e-01</weightTrimRate>
    <maxDepth>1</maxDepth>
    <maxWeakCount>100</maxWeakCount></stageParams>
  <featureParams>
    <maxCatCount>0</maxCatCount>
    <featSize>1</featSize>
    <mode>BASIC</mode></featureParams>
  <stageNum>5</stageNum>
  <stages>
    <!-- stage 0 -->
    <_>
      <maxWeakCount>1</maxWeakCount>
      <stageThreshold>1.</stageThreshold>
      <weakClassifiers>
        <_>
          <internalNodes>
            0 -1 0 -6.1671650409698486e-01</internalNodes>
          <leafValues>
            1. -1.</leafValues></_></weakClassifiers></_>
    <!-- stage 1 -->
    <_>
      <maxWeakCount>2</maxWeakCount>
      <stageThreshold>-4.8546262085437775e-02</stageThreshold>
      <weakClassifiers>
        <_>
          <internalNodes>
            0 -1 3 -5.0491210073232651e-02</internalNodes>
          <leafValues>
            1. -9.9203187227249146e-01</leafValues></_>
        <_>
          <internalNodes>
            0 -1 4 -3.4462869167327881e-02</internalNodes>
          <leafValues>
            9.4348561763763428e-01 -9.9800789356231689e-01</leafValues></_></weakClassifiers></_>
    <!-- stage 2 -->
    <_>
      <maxWeakCount>3</maxWeakCount>
      <stageThreshold>-1.2013268470764160e+00</stageThreshold>
      <weakClassifiers>
        <_>
          <internalNodes>
            0 -1 8 4.7393152490258217e-03</internalNodes>
          <leafValues>
            -9.8797595500946045e-01 8.9403975009918213e-01</leafValues></_>
        <_>
          <internalNodes>
            0 -1 10 -3.1207450665533543e-03</internalNodes>
          <leafValues>
            7.8750312328338623e-01 -9.5680212974548340e-01</leafValues></_>
        <_>
          <internalNodes>
            0 -1 6 2.1168371662497520e-02</internalNodes>
          <leafValues>
            -9.9524176120758057e-01 7.4345123767852783e-01</leafValues></_></weakClassifiers></_>
    <!-- stage 3 -->
    <_>
      <maxWeakCount>3</maxWeakCount>
      <stageThreshold>-1.2579791545867920e+00</stageThreshold>
      <weakClassifiers>
        <_>
          <internalNodes>
            0 -1 2 -9.9187284708023071e-01</internalNodes>
          <leafValues>
            8.6301368474960327e-01 -9.7407776117324829e-01</leafValues></_>
        <_>
          <internalNodes>
            0 -1 9 -2.0877568051218987e-02</internalNodes>
          <leafValues>
            6.7554557323455811e-01 -9.6885943412780762e-01</leafValues></_>
        <_>
          <internalNodes>
            0 -1 5 -2.1544727496802807e-03</internalNodes>
          <leafValues>
            6.8495804071426392e-01 -9.5226216316223145e-01</leafValues></_></weakClassifiers></_>
    <!-- stage 4 -->
    <_>
      <maxWeakCount>2</maxWeakCount>
      <stageThreshold>-2.7501240372657776e-01</stageThreshold>
      <weakClassifiers>
        <_>
          <internalNodes>
            0 -1 7 4.3588001281023026e-03</internalNodes>
          <leafValues>
            -9.4035786390304565e-01 6.6433566808700562e-01</leafValues></_>
        <_>
          <internalNodes>
            0 -1 1 -1.1208038330078125e+00</internalNodes>
          <leafValues>
            7.6858747005462646e-01 -9.3934804201126099e-01</leafValues></_></weakClassifiers></_></stages>
  <features>
    <_>
      <rects>
        <_>
          0 1 23 21 -1.</_>
        <_>
          0 8 23 7 3.</_></rects>
      <tilted>0</tilted></_>
    <_>
      <rects>
        <_>
          0 2 32 21 -1.</_>
        <_>
          0 9 32 7 3.</_></rects>
      <tilted>0</tilted></_>
    <_>
      <rects>
        <_>
          0 3 32 18 -1.</_>
        <_>
          0 9 32 6 3.</_></rects>
      <tilted>0</tilted></_>
    <_>
      <rects>
        <_>
          0 8 27 3 -1.</_>
        <_>
          0 9 27 1 3.</_></rects>
      <tilted>0</tilted></_>
    <_>
      <rects>
        <_>
          0 13 26 3 -1.</_>
        <_>
          0 14 26 1 3.</_></rects>
      <tilted>0</tilted></_>
    <_>
      <rects>
        <_>
          4 8 2 5 -1.</_>
        <_>
          5 8 1 5 2.</_></rects>
      <tilted>0</tilted></_>
    <_>
      <rects>
        <_>
          5 9 9 6 -1.</_>
        <_>
          8 9 3 6 3.</_></rects>
      <tilted>0</tilted></_>
    <_>
      <rects>
        <_>
          12 9 6 1 -1.</_>
        <_>
          14 9 2 1 3.</_></rects>
      <tilted>0</tilted></_>
    <_>
      <rects>
        <_>
          18 9 3 6 -1.</_>
        <_>
          19 9 1 6 3.</_></rects>
      <tilted>0</tilted></_>
    <_>
      <rects>
        <_>
          21 8 11 3 -1.</_>
        <_>
          21 9 11 1 3.</_></rects>
      <tilted>0</tilted></_>
    <_>
      <rects>
        <_>
          23 8 2 8 -1.</_>
        <_>
          24 8 1 8 2.</_></rects>
      <tilted>0</tilted></_></features></cascade>
</opencv_storage>
